{
  "hiddenWeights": [
    [
      [
        -0.23033617695326433,
        -1.1242891412607103
      ],
      [
        0.47581883634511235,
        1.4226442823453198
      ],
      [
        0.11835304851093495,
        1.1978910136567351
      ],
      [
        -0.49215833566172684,
        0.5091064954380146
      ],
      [
        0.08383391512054536,
        -1.5925680555539439
      ],
      [
        -0.4593575419920769,
        0.6567963531517468
      ],
      [
        -0.22416566959292636,
        -0.29385472078800534
      ],
      [
        -0.030023366968788157,
        -0.3604505824146679
      ],
      [
        -0.38818946864570775,
        1.619998595971932
      ],
      [
        -0.9301973273524247,
        -0.28438037816312284
      ],
      [
        0.4620500914874346,
        1.577913676792765
      ],
      [
        -0.5395752298428285,
        0.4070002257628609
      ],
      [
        -1.2081294869890233,
        -1.2537776885520742
      ],
      [
        -0.6955583134492138,
        -1.698623693147716
      ],
      [
        -0.39591275461592706,
        0.6897141370950545
      ]
    ],
    [
      [
        0.20942882012086966,
        -0.1800303778991351,
        0.2861215807378053,
        -0.7423913074151302,
        0.6808997321012621,
        0.8993264523157245,
        -0.3858857268887697,
        0.25262357378584693,
        -0.5450923986376599,
        -0.4087808918726381,
        0.34572913778442804,
        -0.40295701372453013,
        -0.8267760967764978,
        -1.213392474199724,
        -0.8591960431683345
      ],
      [
        -0.5443606683066315,
        0.842714017169794,
        -0.04035400963488068,
        -0.6243779687086437,
        -0.4592298566413631,
        0.5581900756958814,
        -0.001565114590909476,
        0.21154585286563465,
        0.5360605675737903,
        -1.0362763835077657,
        0.6565244824391483,
        0.4778177154206546,
        -1.1526685136953831,
        -0.03239515955925579,
        0.7132308744256697
      ],
      [
        0.7226818475237992,
        -1.328784281823218,
        -0.4026629594818406,
        0.17001887714684466,
        1.4687549609141926,
        0.14790473901151038,
        0.5691794043076819,
        0.17631344471802543,
        -1.3783899604611194,
        -0.6561392635467574,
        -0.7056848230807565,
        -0.14897219688672145,
        0.5287424589945892,
        1.2144766070034074,
        -0.3288890427422597
      ],
      [
        -0.5463978298548932,
        0.7543646630043161,
        0.5540412207967685,
        0.7571424218156168,
        -0.6316280314403421,
        0.6273727017022015,
        -0.02899760197327404,
        -0.12294101429786151,
        -0.5043193815163013,
        0.6944074261009503,
        -0.20842243879474248,
        0.8425399744028396,
        0.6905694284589883,
        -0.15049929288019787,
        -0.6606075513741598
      ],
      [
        -0.004071762136044286,
        0.6107885537389656,
        0.8831493463125983,
        -0.6298951712550811,
        0.43018902433113126,
        -0.2881312936968303,
        0.2679379852400678,
        -0.6034062723233184,
        -0.8746298752694871,
        0.034339337187093026,
        -0.16547543425125705,
        -0.7345513244407897,
        1.0089579548974366,
        0.8816021385710876,
        -0.940538206657902
      ],
      [
        -0.9931914203058628,
        -0.5533265736427065,
        1.0102772375618785,
        -0.3945466128146514,
        -0.27064788565296327,
        0.8717359093682527,
        0.7097989272741266,
        -0.8142789332653992,
        -0.08162458652454753,
        -0.16572219078729175,
        0.7219980882801897,
        -0.004088998107744311,
        0.016918055808397985,
        -0.7779071640874878,
        0.9628071001463312
      ],
      [
        -0.7057566696434328,
        1.253385009372291,
        0.2626469772226872,
        -0.46050718845673333,
        -1.2578262586329145,
        0.1470876161831063,
        -0.7767236535736476,
        -0.5450189488585707,
        0.9336644604652792,
        0.3580393636770407,
        0.09794046556694157,
        0.8862904435321518,
        -0.7388462550988621,
        0.14917401456471005,
        -0.4319306987711843
      ],
      [
        -0.3420079586834454,
        0.0762741456727282,
        0.7629444212742253,
        -0.8878202729321998,
        -0.6164668347746958,
        0.5916201943681803,
        0.4581291915102386,
        0.14663193781321696,
        0.005152107610286875,
        -0.9052402417861939,
        -0.7737340404634211,
        -0.06839499334290754,
        0.4516693882885302,
        0.30002415425125417,
        0.474525871306197
      ],
      [
        0.8640777342542196,
        0.42770729904566945,
        -0.02203007266237298,
        -0.8998554227516516,
        0.5418459313783353,
        0.24591691094361415,
        0.06605244712548926,
        -0.4216093937019862,
        0.3863801476234222,
        0.8506797066459488,
        0.39631395088292626,
        -1.0466424493861284,
        0.8012546989519855,
        0.9470482106136331,
        0.6037212309330268
      ],
      [
        0.6755070037722349,
        -0.6130154167758902,
        0.8732419663736184,
        0.9492337154768191,
        -0.774099929428981,
        0.749851647838421,
        0.48772440234437675,
        0.50239379511524,
        0.721214459377856,
        -0.40595838233753967,
        0.7984003166144846,
        0.0884009621674358,
        -1.0952897715357957,
        0.6434414128580475,
        -1.0377711216863805
      ],
      [
        0.17081259282584996,
        0.9290802583762175,
        -0.34946758368004516,
        -0.5810182996284353,
        0.36853942733331674,
        0.0032831199168585584,
        0.49032555502824393,
        0.643196613313354,
        0.37103052843420703,
        -0.8875892642912008,
        0.9116594614652666,
        -0.3430685240830787,
        0.27858678642910084,
        -1.015611816255776,
        0.24387024511743494
      ],
      [
        1.1247984053627678,
        -0.5225152974406744,
        0.2137330657094608,
        -0.49712772177082226,
        -0.08054869680738246,
        0.08284562628586858,
        -0.36709060601698995,
        0.13673891053809803,
        0.07716929921292083,
        0.25001804755265206,
        -1.4169181097651276,
        0.269484435750593,
        1.2501888892093853,
        0.27595271324990744,
        0.5021768235263024
      ],
      [
        -1.0345852896783119,
        -0.48277088291700493,
        0.24949421905712324,
        0.7992870355097246,
        -1.1259744724009024,
        0.7023200818586312,
        -1.0199821604019084,
        -0.2285982153882862,
        0.7424159517561899,
        -0.32975606117350914,
        0.16977729558952906,
        -0.4862781163755964,
        -0.5498298185723616,
        -1.0249207907909883,
        0.33106449724286224
      ],
      [
        -0.36967299146877575,
        -0.6661606118970615,
        -0.6011841883384657,
        0.8923993183345622,
        -0.36052250200469843,
        0.712100662859484,
        -0.3926274833262839,
        0.7761373941043477,
        -1.03738942567597,
        0.24394404569040276,
        -0.5297213500911999,
        0.8783729064441449,
        0.9548734819284374,
        0.3760202899443489,
        -0.6243233297787766
      ],
      [
        -0.7000907148452057,
        0.04548115403535855,
        -0.2775014435621307,
        -0.930321352115357,
        -0.4748403896711826,
        0.3581409395483759,
        0.7447229155393834,
        0.37800392664124083,
        0.1656974438536847,
        0.5615597925393171,
        -0.3512363008155453,
        0.851319301210516,
        -0.0649373384250906,
        -0.8573135963449382,
        -0.45297542593383966
      ]
    ]
  ],
  "hiddenBias": [
    [
      0.034317036217011015,
      -0.42745237242136,
      -0.6402655946551634,
      0.036567865495674236,
      0.06433125857845354,
      0.776931398047336,
      -0.34857411788830417,
      0.23769831256534243,
      -0.7315998500237517,
      -0.6458491976736449,
      -0.5815107324518902,
      0.4570472731509046,
      0.4467826804107801,
      0.8410050437842872,
      0.11109900463603041
    ],
    [
      0.2814243418788659,
      -0.780712436943674,
      0.4258199150706565,
      -0.010136427302304884,
      -0.4223623170114167,
      -0.6754397137671835,
      -0.08288966879717824,
      -0.1344983937196465,
      -0.25726176037250853,
      0.37374885085410764,
      -0.7475856328990352,
      -0.5814618019067755,
      0.9351083778430177,
      -0.8239084885047604,
      -0.5503565742049349
    ]
  ],
  "outputWeights": [
    [
      0.6376419952228787,
      1.3378497123730457,
      -2.999284749686606,
      0.6668008339792899,
      -0.687473932413928,
      1.1994865901124236,
      1.568682485529901,
      0.14044655698668296,
      -0.6077924067775193,
      0.5505370432127774,
      0.6560388268699973,
      -1.837483902859097,
      1.7907876880590254,
      -0.9925820107162467,
      0.09360906682843106
    ]
  ],
  "outputBias": [
    -1.143360650263636
  ]
}