{
  "hiddenWeights": [
    [
      [
        -0.6862104123056311,
        0.260593981563447
      ],
      [
        -0.6183014229575041,
        0.5506400309579019
      ],
      [
        -0.6588665447239215,
        -0.613724770000868
      ],
      [
        -0.31744657328498976,
        0.990132169981679
      ],
      [
        0.03110869826307209,
        0.7690608786232692
      ],
      [
        -0.9069492041421398,
        -0.6825793016963478
      ],
      [
        0.9966585045366478,
        0.9202343236294662
      ],
      [
        0.2043509285915411,
        0.06244789725799357
      ],
      [
        0.35191272516325073,
        0.07275821738108569
      ],
      [
        0.3615641715234173,
        0.7045674508177764
      ],
      [
        0.8534737213383221,
        -0.8727760433987259
      ],
      [
        -0.8014580579791032,
        0.8429256876133525
      ],
      [
        0.35753310741360556,
        -0.9534949998391099
      ],
      [
        -0.21266746382106458,
        0.8276880667600689
      ],
      [
        0.6209536683599705,
        0.308175686500183
      ]
    ],
    [
      [
        -0.3513385806973452,
        -0.49511479804280917,
        0.8477866861704283,
        -0.12037919799115149,
        -0.2729717147092631,
        0.5145540731349159,
        -0.6779729944600399,
        -0.09199739556474158,
        -0.342672338474325,
        0.9889501104820394,
        0.6876845218326907,
        0.32402604500886606,
        0.9515258838951087,
        -0.5024332217368862,
        -0.4250517178437783
      ],
      [
        0.5508394349026606,
        0.3896515229412682,
        0.6834646602845048,
        -0.6979603026309804,
        -0.5961392748335165,
        -0.5710189536456594,
        -0.5270164013641208,
        -0.2807018100366026,
        -0.19063558805193698,
        -0.24855606798727825,
        -0.7287311912011472,
        0.6015581672289099,
        -0.8952193244692715,
        0.6317967328280059,
        -0.2479518569380034
      ],
      [
        0.7622782907651514,
        -0.0582914491246841,
        -0.8026273145839379,
        -0.9948682738727547,
        0.4395673191450905,
        0.124386453628344,
        0.42117981940730104,
        0.48304766297108787,
        0.4213428108124964,
        -0.18113442517699746,
        0.9685797311161725,
        0.9854743978407721,
        0.9462145696752171,
        -0.8183746050553581,
        0.05725476915561172
      ],
      [
        0.018391561810648386,
        -0.9961896450941772,
        0.2928261151404928,
        0.8607389312773263,
        -0.7540791021216064,
        -0.2428681283606469,
        0.13377970038887846,
        0.12243904877768833,
        -0.5359890098021562,
        0.2683145505793295,
        -0.41530567401792495,
        -0.14701859200955297,
        0.34246155130784084,
        -0.7595010327064969,
        -0.8273508953696025
      ],
      [
        -0.9592061206750112,
        0.2846019557818316,
        0.3764866248434845,
        0.5082702657954647,
        -0.3090032861214605,
        -0.16801795562659907,
        0.275339308162127,
        0.6909076895777155,
        0.19506124151737536,
        -0.23439829960139616,
        0.1068051323345698,
        0.2505474825208149,
        0.3526578459906456,
        0.2685289332265297,
        -0.8173858773933305
      ],
      [
        -0.15610026882881411,
        -0.19257509308658224,
        0.8444998634458136,
        0.981691060809047,
        0.3369816375900588,
        0.7796534512796752,
        0.6497767428494922,
        -0.5896281736062118,
        -0.9155640921213963,
        0.6293969840289162,
        -0.9373562914155489,
        -0.8025809036175859,
        0.9006234983057183,
        0.9244260889659779,
        0.39596577513048664
      ],
      [
        0.34550483472423954,
        -0.4282253114446555,
        -0.8036816509526182,
        0.45945806033851977,
        0.5264760014975586,
        -0.47922468208673286,
        -0.14963985834607646,
        -0.75570418875688,
        0.1310353294478795,
        0.6217626978809121,
        0.41723260876262996,
        -0.24941236276309156,
        -0.23315812975601258,
        -0.87582444397082,
        -0.8815000334900559
      ],
      [
        -0.18759314314839753,
        0.19458132865543065,
        -0.9855399369776959,
        0.13397046932826925,
        0.1751975062520867,
        0.7175786675197432,
        0.22214540426398174,
        -0.46297936201597006,
        -0.4483209790276054,
        -0.7572411699472027,
        0.1584332182948929,
        0.6781191784276344,
        0.5731027604945412,
        -0.6688569455573306,
        -0.21923090806041298
      ],
      [
        0.006868887922118658,
        -0.6318340897785943,
        0.9118158084694181,
        -0.6557583681961084,
        -0.9183115781535048,
        0.27183102534063897,
        -0.13771883837838172,
        -0.9562411741433777,
        0.19456619734756506,
        -0.6915659643859576,
        0.4172586543033365,
        -0.7428004803126719,
        0.7439993290477377,
        0.4893069979493536,
        -0.3105335864693972
      ],
      [
        0.8941121353473542,
        0.7095805934668525,
        -0.4791660165336539,
        -0.7583936826649408,
        -0.23698159771968927,
        0.6966228429848002,
        0.5785624331101139,
        -0.35581086205403384,
        -0.5242578386833591,
        -0.12652282171534204,
        -0.32870114080465035,
        -0.6232524938014523,
        0.9649736049492154,
        0.7892495969568873,
        -0.6040321548527852
      ],
      [
        0.04646190671334516,
        -0.05114629236572607,
        -0.230579403746671,
        0.551925742870745,
        0.9474070466600972,
        0.31117023768115876,
        -0.46532860522978103,
        -0.760899971878795,
        0.5521832308899257,
        -0.24934145107331815,
        -0.7554166831502073,
        -0.6318196497309111,
        -0.2540366017190624,
        -0.25255712941513714,
        0.3160312246614616
      ],
      [
        -0.9747740278546969,
        -0.14523949345533071,
        0.3168386147101359,
        -0.4837591696047019,
        0.35719881118322655,
        0.5506443653585943,
        0.5097538535251084,
        -0.8360743801249434,
        -0.7615958944103719,
        -0.8081548760628866,
        -0.19346699579378282,
        0.527265576823858,
        0.939566277223313,
        -0.6061466051926307,
        0.7920456406292973
      ],
      [
        -0.039886179120056826,
        -0.44979509284484387,
        -0.653088263504837,
        0.9744914479307853,
        -0.7562988570129155,
        0.5864283805500169,
        -0.9307563832353515,
        0.4212289570621427,
        -0.8997974855048204,
        -0.8002788467860139,
        0.9780600107262797,
        -0.8158896988134149,
        0.05611507706382001,
        -0.01468020419496005,
        -0.6518284084137663
      ],
      [
        0.005847317216470053,
        -0.07267019248194852,
        -0.356494095154986,
        -0.2635527542951408,
        0.2412978244304086,
        0.3942742917952593,
        -0.6038250405162506,
        -0.8199603930255546,
        0.22949859868713987,
        0.41372061542900884,
        -0.2976118653165395,
        -0.223991070336937,
        0.7226914884585902,
        0.38090655188082073,
        0.0036598018866035114
      ],
      [
        -0.4877094183569078,
        -0.3013631911464477,
        0.30264849429063767,
        0.26187584202372066,
        -0.23029811795892197,
        -0.44620606863139395,
        -0.15779027694873735,
        0.2708160745840097,
        -0.38310792248109143,
        0.3997830225938682,
        -0.6403244184716201,
        0.55876246552809,
        0.3893497344661542,
        -0.19044863020293762,
        -0.053956810395130554
      ]
    ]
  ],
  "hiddenBias": [
    [
      -0.14477826242911507,
      -0.9534778529905323,
      -0.20379331774732257,
      0.6733807193738256,
      0.8325013678144877,
      -0.8120720131838691,
      -0.40642477790033954,
      0.39634216123842936,
      -0.13488907154407295,
      0.7712885069623208,
      -0.450860103240581,
      -0.8225979111992786,
      -0.9187536958572138,
      -0.6323159741658707,
      -0.6789096125403642
    ],
    [
      0.3564504099034558,
      -0.581733864906898,
      0.023872246597364238,
      0.38315531187206614,
      0.04014984288479597,
      -0.18579935886045915,
      1.000299410103886,
      -0.9605690026934496,
      -0.3600163132824335,
      0.9039398969240768,
      -0.8879191273040744,
      -0.009602358966405933,
      0.7507100709086797,
      0.5968770977925258,
      -0.8516935294081083
    ]
  ],
  "outputWeights": [
    [
      0.31120710971672083,
      0.3929459549096682,
      -0.13450127154985053,
      0.7930129160098053,
      0.5527355158319092,
      0.9512087289424103,
      -0.12238518442748385,
      0.8518163236956258,
      0.4698965485304701,
      -0.7147299908140862,
      -0.29244959957163064,
      0.8393995644586958,
      0.29177363957758856,
      -0.06169114133910256,
      0.02291100804172317
    ]
  ],
  "outputBias": [
    -0.4738072054590075
  ]
}