{
  "hiddenWeights": [
    [
      [
        0.4104537746408362,
        0.028042369621301674
      ],
      [
        -0.6446439474087865,
        0.46565557797928725
      ],
      [
        -0.20172867181128445,
        1.1242904299782646
      ],
      [
        -0.7116480146314172,
        -0.5896097787633282
      ],
      [
        0.9289357040852995,
        0.7125400982013987
      ],
      [
        0.7592670945978837,
        1.251792302357929
      ],
      [
        0.3133444250957989,
        -0.4945691412437292
      ],
      [
        -1.125956769417551,
        -1.3564360484446831
      ],
      [
        0.9727009329773297,
        1.4326289466570195
      ],
      [
        -0.5001380116212439,
        -0.4200654325683037
      ],
      [
        -0.9131406409168743,
        -0.0003170626509494093
      ],
      [
        -0.8085541535458363,
        0.12930676196102261
      ],
      [
        -0.5126747690084653,
        0.11116137192286056
      ],
      [
        0.8733661826870515,
        1.0831607550222795
      ],
      [
        0.561510190932918,
        1.0786594413883508
      ]
    ],
    [
      [
        0.19796284953988139,
        -0.9219621222746528,
        -0.07568565584578649,
        0.16404528852329195,
        0.5461820206052057,
        -0.30068008113848643,
        0.5877285220327153,
        -0.533750941637959,
        -0.4400709815232281,
        0.2521322994815186,
        -0.6758137341871567,
        0.4113889969874441,
        -0.24395047638145048,
        0.6563684822721404,
        0.17085291699534927
      ],
      [
        -0.5238494509582043,
        -0.09270065243384717,
        -0.7726482136023999,
        0.46065985829993183,
        -0.2894958785501406,
        -0.008013061653164717,
        -0.8320685507724539,
        -0.016568428128350007,
        0.1802920905252996,
        0.45476122520455414,
        0.6923171636829687,
        0.008587969976186263,
        -0.5004120547193218,
        0.11412941453663307,
        0.8287485768691134
      ],
      [
        -0.818216226318207,
        0.39727885485390224,
        0.8101441662601541,
        -0.22103456406371222,
        -0.03118985393783088,
        0.24365152064229112,
        -0.05221556450922753,
        -0.3991913889842116,
        0.8950829368016605,
        -0.5354239980895386,
        0.37937986853854355,
        0.3091213805862412,
        0.5407139022617401,
        -0.6451040631362642,
        1.0545668006375017
      ],
      [
        0.3592948579593151,
        -0.6610668642191142,
        0.9145348786353653,
        0.45926987961890925,
        -0.13873303910699922,
        -0.5456487525782039,
        -0.05684780790692221,
        -0.6175926081478853,
        1.1049477925597548,
        -1.0368658478045683,
        0.9862031944492959,
        0.19526527509430527,
        -0.7310262548636833,
        -0.7422669177633267,
        0.6975354832121433
      ],
      [
        0.3096576344034208,
        0.29188433176355083,
        -0.17882566773961167,
        0.49004273328393533,
        -0.552667982107674,
        1.0833118150705459,
        0.6115443557661175,
        -0.5367248069171588,
        0.954264517944475,
        -0.010017294955588221,
        -0.3739114166049046,
        -0.8209428207790999,
        -0.791470083791468,
        0.7701956159444591,
        -0.17523717320332186
      ],
      [
        -0.0586857784054177,
        -0.3631358049766832,
        -0.6241418323474457,
        -0.24772076085934833,
        -0.27176350723204973,
        0.05718061285940809,
        0.5449357442600946,
        1.572454146775016,
        -0.9618611464015152,
        0.7431538516390896,
        1.1302054030841984,
        0.7515005140610244,
        0.34759472692395416,
        -0.9634815085585794,
        -0.7399264981759719
      ],
      [
        0.7067443096858715,
        0.7285911518354892,
        0.13169042846074425,
        0.654497430887287,
        0.5289848825889901,
        -0.8267475624241089,
        -0.6143763328204827,
        0.9004330718135265,
        -0.5637473928496338,
        -0.17980796939239943,
        -0.6554467147353175,
        0.3569472980950842,
        0.7581321471462561,
        -0.2960901896984143,
        -0.5665406374265299
      ],
      [
        0.24589868851871258,
        0.20904555276162023,
        -0.5084983467931297,
        1.1209100671394598,
        -0.5699385759531264,
        -0.8471321166530585,
        0.5093184175757424,
        1.1970543706453218,
        0.3307149343855924,
        -0.24592798379924916,
        0.8764869017854088,
        -0.1748200247216538,
        -0.26660758796695533,
        -1.1151510235950424,
        -0.7321371221068355
      ],
      [
        -0.31822722560250805,
        -0.4964223042808798,
        0.6635565425060563,
        -1.1205155034387724,
        0.5984619214741379,
        0.2020628281509313,
        -0.3124237687958817,
        -0.06731502168819567,
        1.1817257811952302,
        0.15583333969945204,
        -0.9713949770356847,
        -0.5863526749968248,
        -0.49915069398935097,
        0.28764665784970234,
        0.1228239379261662
      ],
      [
        -0.644762026085945,
        0.6246989286094251,
        0.008745699243000187,
        0.3466603963689801,
        -0.9274750231870232,
        -0.38092254435036443,
        0.06923742967814896,
        -0.19792071852389348,
        -0.2214339790303853,
        0.735466940813491,
        -0.3891241678538075,
        0.8151038583297058,
        -0.006490125351800164,
        -0.7741373045153846,
        0.4680407456671255
      ],
      [
        0.6654111835157722,
        0.8092759688567365,
        -0.4386489634358185,
        -0.16831138695501577,
        0.5570503894817352,
        -1.0524856819846569,
        0.8358884952165517,
        0.9999634262623999,
        0.6637457901997872,
        -0.9234018781762492,
        -0.25972419174301087,
        0.41006242457790437,
        0.15373917299335568,
        0.8199062166329395,
        -0.8140984561834729
      ],
      [
        -0.15033826053467117,
        -0.07055357339728172,
        0.10024845727469187,
        0.8111069366234297,
        0.8472363856329064,
        0.39280946733268496,
        0.13878886324779346,
        -0.45019320048029404,
        -0.1711101104233119,
        -0.6241759265257826,
        -0.18017475324528381,
        0.02763989139443135,
        -0.8782070316154905,
        -0.1198636269946897,
        0.7514532971090285
      ],
      [
        0.7888959492268641,
        0.6168246846505162,
        0.20375403515620522,
        0.0581018137966261,
        0.8774667971296781,
        -0.18570664733384412,
        -0.6814130384617043,
        -0.750798571342414,
        0.23153708938297846,
        0.043697572777027405,
        -0.6402034660660783,
        0.7701063867017197,
        0.8826257151670519,
        -0.8673209662591173,
        0.07142527790248492
      ],
      [
        -0.52715920700707,
        0.39486707452654257,
        0.9854058226587036,
        0.6585465196367946,
        0.7206348354723177,
        -0.4382890587631963,
        -0.005221471948924932,
        -0.9079106524895721,
        0.2032630065349966,
        0.42224310974984613,
        0.6421085988699257,
        0.7387168160480787,
        -0.2436201011112342,
        0.9673868035353358,
        0.05295522146794762
      ],
      [
        -0.36744252582881065,
        -0.6384862583601233,
        -0.7266018374177823,
        0.7808106776561942,
        -0.48320635086569413,
        -0.6583795837024143,
        1.128243543216638,
        0.853471516256193,
        -0.6212015355774225,
        -0.04620912110575722,
        -0.09436740133258169,
        0.8751101650044341,
        -0.1431085903671225,
        0.009371106124928304,
        -0.07015714092687789
      ]
    ]
  ],
  "hiddenBias": [
    [
      0.9086444632097811,
      -0.811412118285955,
      -0.33260318043615733,
      0.0956678978042528,
      -0.39340380584112766,
      -0.4582627967348125,
      0.4128833883017421,
      0.7901170725797231,
      -1.1632414918638336,
      0.5641808952479772,
      -0.5306032576480413,
      -0.181169829432977,
      -0.9095740068274616,
      -0.5268241696379384,
      -0.15027254638042606
    ],
    [
      0.18543950017286717,
      0.4089919528776656,
      -0.30175761738820944,
      -0.5015788345664604,
      -0.6516437890489357,
      0.13275696143957672,
      -0.1296430221793775,
      0.6195735312935469,
      0.2976205753135281,
      0.2152330378315753,
      0.4972941745927364,
      0.7238117581887401,
      0.5750004324828588,
      0.4797858500930399,
      -0.031582419663576236
    ]
  ],
  "outputWeights": [
    [
      0.4852713501077138,
      -0.14611318099069578,
      0.8468157562544385,
      0.5499123735125708,
      1.100181054540152,
      -2.4131675064029743,
      -0.8478267075910038,
      -1.766657022778116,
      1.3651164082638043,
      -1.0229341472862892,
      -0.5326366913944595,
      0.6843986709198557,
      0.6153274807292235,
      0.14488828370856524,
      -1.2823586999343624
    ]
  ],
  "outputBias": [
    0.168613714613167
  ]
}