{
  "hiddenWeights": [
    [
      [
        -0.3556344132118477,
        0.2688295461388992
      ],
      [
        -0.5231074204942784,
        0.7152241575035747
      ],
      [
        0.5421725329979282,
        0.8928273730404074
      ],
      [
        0.7884334831064712,
        0.9958385155389978
      ],
      [
        -0.058209961470325054,
        0.07902268083730593
      ],
      [
        0.4704613984868425,
        -0.8171860640180783
      ],
      [
        0.7322367223742163,
        0.4309693194501283
      ],
      [
        -0.38463698355666975,
        0.43639836940506144
      ],
      [
        -0.5007765101655738,
        0.09682033017774282
      ],
      [
        -0.8094082188312106,
        -0.11347810136382058
      ],
      [
        0.9092547260810249,
        -0.011165152210391886
      ],
      [
        -0.5217578996944728,
        -0.6565472834313207
      ],
      [
        -0.3344119386782392,
        -0.03961551317584905
      ],
      [
        0.5838081767279037,
        0.8623109336425883
      ],
      [
        0.5196754078161988,
        0.48835729060681593
      ]
    ],
    [
      [
        0.4806759416754179,
        -0.4572602072807165,
        -0.9886779768533178,
        -0.643247281008493,
        -0.6695418034082645,
        -0.8992197840711404,
        -0.37239176137428687,
        0.7041835214840025,
        -0.5855948562714293,
        0.42171573960946973,
        -0.16451880760968074,
        0.7967246086054378,
        0.5349194142400916,
        -0.6603009259610764,
        -0.43818017792878633
      ],
      [
        0.7308690440739442,
        0.38466244009538425,
        -0.3427900674184849,
        0.3304622224557558,
        -0.39496369968016454,
        0.13060045426898648,
        -0.747444282411543,
        0.5602252418552466,
        0.9064956145449419,
        -0.09856345838607718,
        -0.16384225238490957,
        -0.2943906994426538,
        -0.5208113176555429,
        -0.7878752097955612,
        0.8041490035508877
      ],
      [
        0.40870218081659276,
        -0.3709572410628855,
        0.6715711952137642,
        0.06341689801350779,
        0.7770822815638001,
        0.8662511925533217,
        -0.6793283534634479,
        0.35305427774554654,
        -0.5011072086604546,
        0.47353878663095256,
        0.6939937151701826,
        0.5115740865764439,
        0.8436596221299942,
        -0.5191553073684302,
        0.13796282768600732
      ],
      [
        -0.06738037681036624,
        0.3291238360339524,
        -0.03802350231133854,
        0.69972064930174,
        -0.5656009575507429,
        -0.8127192107310591,
        -0.056406260423107535,
        0.7147622308453992,
        0.4973385796678584,
        -0.22567536420339254,
        -0.9035704266351671,
        -0.8654661348499572,
        0.6870928204462937,
        -0.09869395581790778,
        0.19721929602217025
      ],
      [
        0.03798596519807688,
        -0.9488046647211485,
        -0.14898360523055618,
        -0.0885220556095527,
        -0.12896353085784462,
        0.15795312392004235,
        -0.9449550070697496,
        0.7618011706890877,
        0.12331331093929507,
        -0.6504602433516681,
        0.6431255450955908,
        -0.4116844728308064,
        -0.7909370995080982,
        -0.42960390744846166,
        -0.5853427111124643
      ],
      [
        -0.9554967971932035,
        0.10630478662833154,
        -0.908486103683024,
        -0.2902193293433103,
        -0.49580718306452937,
        -0.9633366721606547,
        0.01707703784909926,
        -0.8968732922410853,
        -0.7485703141930996,
        0.7967882618406433,
        0.6928308817969885,
        0.9133108718759065,
        0.656697553589837,
        -0.9147861166759373,
        -0.20344700184042844
      ],
      [
        0.27534892202651245,
        -0.3724008720686805,
        -0.98668769016192,
        0.604786269490436,
        0.1985788627875145,
        -0.030592293105646148,
        0.49717312803820274,
        0.3635807505828782,
        -0.8093516271087283,
        -0.6106777670790052,
        0.7374669011702981,
        -0.8700616217051802,
        -0.8658614054880921,
        0.7435430233563236,
        -0.3952813608413158
      ],
      [
        -0.3835287785522383,
        0.16588726943005683,
        0.4006307921508203,
        0.7127749922472773,
        0.10286027548351288,
        -0.7330184123690949,
        0.17328634819195116,
        -0.7423438891903849,
        -0.10094447215084337,
        0.8141365658380121,
        0.518552666231584,
        0.5997729501266393,
        -0.46154076142955736,
        -0.12552985869579109,
        -0.9546268773661871
      ],
      [
        0.7404166633787853,
        0.6109779606419924,
        -0.7167067379478261,
        0.26171535633076476,
        -0.9460965812354464,
        -0.41000979461795406,
        -0.7652315936876358,
        -0.5413413970833454,
        -0.06265554824392038,
        -0.2956491097579351,
        -0.614455436351168,
        -0.6358644788707171,
        0.6987205899428695,
        0.22668861467937718,
        -0.21975811717999993
      ],
      [
        -0.8823815171667257,
        0.7153737676362857,
        -0.15533869973141656,
        0.849507806163469,
        -0.7095388751618293,
        0.27995392218141474,
        -0.8050132382661289,
        0.31008367901113454,
        -0.3542464770264663,
        -0.3503949167701424,
        -0.651477593286698,
        0.704867550955424,
        0.7916959098872113,
        0.34457716913917996,
        0.033044148966880287
      ],
      [
        -0.8264986065875332,
        -0.8674192152075977,
        0.4292099221722144,
        0.3293931782479451,
        0.30345245563358453,
        0.2806200620411358,
        -0.0369353555506137,
        0.33357461729285526,
        0.9704870676176615,
        -0.4120803624664611,
        -0.6400653114634531,
        -0.7536991424593669,
        0.5709331045748858,
        0.14095201573225585,
        0.5153920681083807
      ],
      [
        0.5649087768071305,
        -0.3288696905086394,
        -0.8072024545616009,
        -0.9632851176468761,
        -0.9782646804365018,
        0.7547633832917032,
        0.4348936708854985,
        -0.8429588459249607,
        0.7551922647999635,
        0.5265601354052096,
        -0.4725112975717359,
        -0.47718017565578397,
        0.3411912049304722,
        -0.561900738360936,
        0.7877783116383196
      ],
      [
        0.6913430423384097,
        0.04154235188867347,
        -0.5785733414194645,
        -0.7067510170622259,
        -0.6286660316696264,
        0.09883469910718737,
        0.6210141382418323,
        -0.7139653046834069,
        0.9698798461549054,
        -0.7748858752677802,
        0.3654447899254151,
        0.5241166095242419,
        -0.7177011206787567,
        0.8496952412096813,
        -0.019776460563205218
      ],
      [
        -0.7566328512034193,
        0.5122401162708746,
        0.9558080684318654,
        0.36100482403031536,
        0.8133681712007763,
        -0.07269628055648122,
        -0.6159356864048487,
        -0.8527980271406054,
        0.9809329113464494,
        0.5100217612080065,
        0.319738881071174,
        0.3331036967345365,
        -0.07885178998076911,
        -0.2551201799993611,
        0.6998140874842479
      ],
      [
        0.4545526369542479,
        -0.07338995339567465,
        -0.6671526127788132,
        -0.058260377801075874,
        0.6334490690171262,
        0.0995064531327055,
        -0.2287424164153492,
        0.005599158633023783,
        0.18599292515289165,
        0.6722749919842625,
        -0.6510012739046452,
        -0.7179748496857922,
        -0.7180719770741765,
        0.8204447965109862,
        0.021655403001341937
      ]
    ]
  ],
  "hiddenBias": [
    [
      -0.3862729925976828,
      -0.33147543886089087,
      -0.10869351942559026,
      0.6972031864297488,
      -0.3687163585520656,
      -0.23974733763993178,
      -0.4722817602355824,
      0.7396122330703844,
      -0.390970764908726,
      0.1528428586467036,
      -0.1023836821231353,
      0.5605330177695758,
      0.1288835272399485,
      -0.40962769605135574,
      -0.8022137232958363
    ],
    [
      0.42405839349629965,
      0.4877624963354628,
      -0.1994765289835272,
      0.36684434098178603,
      -0.8736493389757465,
      0.8575660334329096,
      0.21362904562953475,
      0.2824904461686292,
      -0.5786150941179453,
      0.6736477834933069,
      0.1398148465429588,
      -0.34619622464638095,
      0.27437925545872904,
      0.10916597217548783,
      0.24435162519321355
    ]
  ],
  "outputWeights": [
    [
      0.46297600106918174,
      0.6571781744206505,
      0.46706580609029663,
      0.12682569797003868,
      0.5816877587796233,
      -0.7322004073751831,
      -0.9251093623843174,
      -0.9559677100357347,
      0.8438364461227121,
      -0.6059537747758941,
      0.9760434152519929,
      0.07515757387388991,
      -0.806251790644431,
      0.034156429879122825,
      -0.3583706887093345
    ]
  ],
  "outputBias": [
    0.6935472950067922
  ]
}